34 32
34 0.046068255 0.05397674 -0.119996764 -0.01573611 -0.3772992 0.33960342 0.39424765 -0.44167522 0.10654952 0.23440793 0.44826877 -0.04946932 -0.1529064 0.11698837 -0.17611921 0.0705075 -0.16522709 0.007337263 0.005892621 -0.26373416 -0.02256253 -0.20489833 -0.11041166 0.22614229 0.12682603 -0.12097551 -0.12196708 -0.32331353 0.5227375 0.1428164 -0.011142293 0.20718165
1 0.04957876 -0.2870682 -0.16369632 -0.116625346 0.076756135 0.29734558 0.15979064 0.069643065 -0.23704281 0.3520409 0.2480083 0.024998274 0.16765168 0.061081875 -0.22746018 -0.08023233 0.0038994541 -0.18118215 -0.19969937 -0.6164182 0.11183456 -0.15544681 -0.3041976 0.07491778 0.2384731 -0.23881003 -0.20852964 -0.20176521 0.37847936 0.17067121 -0.39224294 -0.04998491
33 0.017621538 0.12504622 -0.112751655 -0.04180867 -0.41295794 0.38511127 0.41594023 -0.54999655 0.1892896 0.2738531 0.4476702 -0.12529054 -0.16831398 0.14204252 -0.11252146 0.05237675 -0.14089473 0.050915956 0.030662777 -0.15305844 -0.006909124 -0.28286317 -0.12503782 0.27829006 0.073403165 -0.12825763 -0.14548102 -0.3080636 0.5908342 0.14280012 -0.02852982 0.22398603
3 0.12950115 -0.07289016 -0.23227893 0.037337124 -0.23289423 0.22404069 0.22105663 -0.16725278 -0.06907688 0.27686748 0.38064432 -0.03260435 -0.007822372 0.09128998 -0.23501576 -0.025919646 -0.1164924 -0.106909305 0.08643949 -0.43019983 0.0923915 -0.120343715 -0.25127962 0.09512594 0.26766783 -0.12662141 -0.11447926 -0.25837 0.43302533 0.02271524 -0.2980938 0.09932927
2 0.17085272 -0.07037252 -0.22394568 0.041381683 -0.19169453 0.23587309 0.16544138 -0.05072017 -0.14456269 0.25472927 0.3435986 0.020609388 0.018162925 0.07454379 -0.2505928 -0.1161711 -0.052205093 -0.07360098 0.18165734 -0.48702362 0.22938941 -0.22976404 -0.36148763 0.05725856 0.44448888 -0.13269794 -0.13168834 -0.2028705 0.3542955 -0.0045434283 -0.5566018 0.14491902
32 0.009374122 -0.107057124 -0.21901369 -0.03134663 -0.12346205 0.16054039 0.4352799 -0.39675373 -0.059870612 0.2453107 0.32212234 -0.0954162 0.059138983 0.10274299 -0.20139378 0.15465584 -0.0107016 0.0055598677 -0.1762737 -0.4259155 0.03217659 -0.10409516 -0.12736432 0.16871768 -0.005069506 -0.15646118 -0.17850418 -0.29984564 0.60822433 0.21340235 0.06686088 0.01493481
4 0.25086808 -0.11450884 -0.33350247 0.11208888 -0.20954242 0.049769316 0.17765719 0.053754162 -0.25909585 0.25339186 0.3675391 0.033158284 0.040523734 -0.0034494067 -0.36285928 -0.043096595 -0.08708693 -0.11161188 0.22492225 -0.62604547 0.34673166 -0.099578254 -0.39119983 0.019839073 0.58766943 -0.12939315 -0.12933113 -0.19920722 0.32676792 -0.038764976 -0.62529606 0.1519436
24 0.07482383 0.007570436 -0.3606168 0.11015365 -0.2814547 0.008418851 0.594107 -0.5930739 -0.045733437 0.14900692 0.40365803 -0.2022515 -0.0428778 0.094903976 -0.25392243 0.2755851 -0.040935557 0.08712291 -0.03066017 -0.39997402 0.13309164 -0.06634874 -0.09545928 0.19040523 0.079234764 -0.11389997 -0.1441307 -0.33004332 0.67624676 0.1535003 0.10235879 0.11821843
6 -0.21752591 -0.49109885 0.08038433 -0.34838635 0.2609122 0.81497014 0.012776659 0.1795001 -0.20112467 0.5622857 0.28327113 0.092091165 0.30010685 0.21741459 -0.08681454 -0.2978941 0.035077628 -0.29654282 -0.59498674 -0.65205026 -0.20845301 -0.22206956 -0.27462658 0.06284997 0.007020903 -0.40819526 -0.2649602 -0.22320205 0.46231928 0.2955759 -0.3868835 -0.2043641
14 0.16524975 -0.085522346 -0.21827912 0.064193666 -0.21226132 0.19015308 0.20352139 -0.073679514 -0.14397752 0.26190525 0.35686558 -0.0016131407 -0.00506961 0.05797587 -0.26054534 -0.045379926 -0.106047705 -0.059642114 0.10262097 -0.47692278 0.2040328 -0.13923773 -0.2901935 0.0781433 0.40468514 -0.14323856 -0.1229007 -0.20717876 0.36531988 0.022048112 -0.45611537 0.14581299
7 -0.18405783 -0.44590378 0.024289431 -0.335569 0.24030173 0.7141372 0.05258358 0.15630585 -0.21380296 0.5196719 0.2655997 0.07269338 0.3049135 0.16706362 -0.09609766 -0.23641731 -0.01495184 -0.3172245 -0.49240303 -0.66150707 -0.14607808 -0.19334164 -0.3135341 0.100829095 0.036997613 -0.3737313 -0.29028612 -0.18139291 0.40651324 0.31069696 -0.3839725 -0.16458376
28 0.12086765 -0.1074644 -0.38529783 0.10577918 -0.25865522 -0.007021429 0.50131035 -0.4488583 -0.09466701 0.1652592 0.3951313 -0.1308935 -0.033188183 0.04333869 -0.30046827 0.23412724 -0.07931509 0.056008708 -0.059710573 -0.47523886 0.17663762 0.02392835 -0.123655505 0.14393003 0.1322637 -0.10519962 -0.11872504 -0.34149238 0.5908041 0.14319675 0.063575834 0.09280742
11 -0.20172474 -0.45084795 0.020018626 -0.3695455 0.27011132 0.71705616 -0.0046624825 0.2501582 -0.2342394 0.53257513 0.25731602 0.078598045 0.3536158 0.16947179 -0.11745709 -0.2826972 0.024096856 -0.36522633 -0.50754535 -0.710558 -0.1566439 -0.22810346 -0.31359047 0.073129326 0.04320187 -0.37311232 -0.28983137 -0.16877113 0.41620737 0.28506675 -0.46192667 -0.19751108
9 0.07938997 0.0023237725 -0.12710848 -0.03093752 -0.265946 0.31506482 0.28751054 -0.3008665 0.075422935 0.28170958 0.35723796 -0.052152343 -0.05607096 0.12821132 -0.14781727 -0.0054670637 -0.11750867 -0.02521751 0.03342669 -0.2762777 0.046632215 -0.23260254 -0.20884028 0.18766892 0.19127774 -0.12103835 -0.15406017 -0.24587432 0.46442226 0.0923265 -0.23530555 0.1421494
30 0.011088278 0.13279279 -0.16146967 0.029281866 -0.3430158 0.24699995 0.5085449 -0.59377617 0.15144865 0.15258698 0.40647653 -0.11487748 -0.12132649 0.19084463 -0.16938072 0.18187776 -0.07802432 0.12425553 -0.04982226 -0.2586382 0.08153168 -0.2417105 -0.10398931 0.2703099 0.115431614 -0.092230834 -0.2040025 -0.28730315 0.5967345 0.20664015 -0.012070039 0.2262882
5 -0.14433654 -0.4638814 0.0086436095 -0.3349471 0.25518253 0.7025954 0.0033790485 0.22225505 -0.26338878 0.51556796 0.2618633 0.06904987 0.31223178 0.17107433 -0.09129668 -0.29030553 -0.00032116394 -0.35516784 -0.47254413 -0.7022853 -0.12828916 -0.2000581 -0.2985545 0.07653293 0.03630179 -0.37468463 -0.24875873 -0.1893322 0.39419696 0.290704 -0.42400226 -0.1950967
29 0.06523463 -0.09682154 -0.18491517 -0.0062671653 -0.21166767 0.24672145 0.34988338 -0.3366329 -0.0010752305 0.23818226 0.330494 -0.10445796 -0.021195674 0.13409936 -0.17637911 0.08797078 -0.08182168 -0.0071251183 -0.10936133 -0.3087556 0.044032216 -0.13237143 -0.19184108 0.14529167 0.096533604 -0.15813775 -0.18603857 -0.22429857 0.52269214 0.155327 -0.1067875 0.07759956
8 0.16218849 -0.11561589 -0.2297924 0.032634374 -0.19939375 0.20635717 0.16507027 -0.033265617 -0.15105672 0.2956039 0.36495236 0.015264619 0.002862224 0.04830007 -0.2437411 -0.0840121 -0.112571605 -0.10943147 0.13748644 -0.50838435 0.20652078 -0.13461311 -0.31281677 0.07582832 0.4173962 -0.1259596 -0.13164073 -0.22997397 0.3473267 0.001980429 -0.486906 0.13512796
26 0.0024680628 -0.134462 -0.3549429 0.02673528 -0.20772764 0.034538627 0.6443465 -0.6044195 -0.071359195 0.12326561 0.37911052 -0.15249841 0.0065472517 0.08678067 -0.2533657 0.34837332 -0.07113482 0.09617766 -0.30750695 -0.46124542 0.083429396 0.026699426 -0.039598357 0.18013264 -0.09599872 -0.15158227 -0.17743735 -0.35288453 0.7074741 0.2792605 0.30533803 0.028039796
31 0.08066154 0.10037986 -0.1630931 0.018865248 -0.3778695 0.2938689 0.27829888 -0.31160668 0.119091794 0.26551548 0.42071363 -0.057395007 -0.09117699 0.13121383 -0.15009004 -0.0286585 -0.13209996 -0.0027042204 0.18103547 -0.23652956 0.10942929 -0.2563834 -0.2543905 0.19334933 0.28852597 -0.09219266 -0.1438574 -0.22141786 0.44809464 0.06357522 -0.29134843 0.22817509
25 0.09987955 -0.12802972 -0.4159511 0.10876155 -0.19931419 -0.052901026 0.6191753 -0.55689245 -0.14868595 0.14087194 0.34321705 -0.19859947 -0.010035044 0.05792325 -0.26638263 0.34484643 -0.059678864 0.07414705 -0.2019675 -0.49937832 0.17878723 0.021703266 -0.10116387 0.1408647 0.015462789 -0.16456161 -0.1650851 -0.32912004 0.6762128 0.19157588 0.19292301 0.026364159
20 0.055004824 -0.05726365 -0.11572542 -0.04462873 -0.13472863 0.32996115 0.1502771 -0.08770516 -0.08543824 0.32477108 0.30198818 0.009453722 0.052429646 0.123713166 -0.14633666 -0.078978725 -0.048311245 -0.100419156 -0.009141544 -0.39648306 0.102968514 -0.25446743 -0.2737895 0.13043945 0.268913 -0.17258963 -0.2019651 -0.16975063 0.40429756 0.10090163 -0.4136745 0.10110078
23 0.0070043216 0.14926419 -0.11899422 -0.023342416 -0.39110455 0.37417018 0.4167468 -0.54336256 0.21964523 0.256418 0.44156623 -0.1313572 -0.11640697 0.2048924 -0.11080376 0.06835279 -0.12623645 0.029348493 0.021113317 -0.14745475 -0.0017509131 -0.27615234 -0.1584776 0.27537242 0.078425996 -0.111207895 -0.18314146 -0.27962375 0.5778466 0.16691303 -0.04652625 0.19931772
17 -0.21435396 -0.4904455 0.009173413 -0.3790061 0.27217045 0.74232656 0.044165913 0.20013745 -0.24928294 0.50023526 0.28036225 0.07753656 0.3690638 0.2134526 -0.1022896 -0.29011855 0.065044366 -0.38425526 -0.52516985 -0.73104614 -0.17747588 -0.24322939 -0.30985796 0.08017338 -0.01945514 -0.38178098 -0.26999244 -0.1773193 0.45897505 0.30340716 -0.37517694 -0.22614147
10 0.030980045 -0.07667975 -0.13930628 -0.05944415 -0.20036188 0.34249565 0.24990836 -0.23760843 0.025171306 0.28218997 0.35052425 -0.0422133 -0.020313933 0.14136235 -0.14808051 -0.04801365 -0.07129315 -0.07317757 -0.030117398 -0.31379363 0.04116131 -0.20412804 -0.21674745 0.1380857 0.16103604 -0.14993756 -0.1373872 -0.23099957 0.45383373 0.09585545 -0.24940084 0.0972424
27 0.035909668 0.17749326 -0.20519443 0.044652514 -0.35798126 0.25030926 0.48655397 -0.60171056 0.1930882 0.16835223 0.42975315 -0.15956093 -0.16799453 0.2042467 -0.19025944 0.17072733 -0.119423494 0.117713034 -0.013266722 -0.17482671 0.07944874 -0.23842117 -0.10754077 0.3116888 0.10663633 -0.07672601 -0.22148041 -0.2843047 0.6094341 0.1997398 -0.05250267 0.24301532
13 0.16939665 -0.18958358 -0.23850831 0.038689107 -0.06279778 0.19351628 0.11254558 0.13884859 -0.28576085 0.29676723 0.30395678 0.030570762 0.088419445 0.029649567 -0.28966042 -0.08522354 -0.030642966 -0.09632457 0.054843485 -0.64252895 0.23120774 -0.1277911 -0.3526665 0.00083111326 0.45494968 -0.15967713 -0.17819843 -0.18600608 0.33551028 0.011028659 -0.6064776 0.06667041
15 0.0046539907 0.096166015 -0.15956807 -0.025340563 -0.38911763 0.34915018 0.45223343 -0.594057 0.22988814 0.2298607 0.42886728 -0.15741476 -0.11899193 0.2029218 -0.112484135 0.08435313 -0.106515855 0.05279549 -0.009311424 -0.13633059 -0.01817384 -0.2714699 -0.13255562 0.27555355 0.018037938 -0.101711966 -0.17299736 -0.31176135 0.6244093 0.18290834 0.0417384 0.19539623
16 0.0202401 0.19393449 -0.12741624 -0.033496812 -0.45274284 0.37906832 0.4970896 -0.6999676 0.30448976 0.25854236 0.43973848 -0.16261154 -0.15087649 0.22197652 -0.08233389 0.09949574 -0.14491093 0.061639547 0.006132398 -0.07654285 -0.045958184 -0.3502361 -0.12308167 0.34216788 -0.0036002554 -0.0756771 -0.21531695 -0.31210193 0.67276764 0.19595556 0.03376547 0.2410047
19 0.051893838 0.14827015 -0.12528843 -0.02711091 -0.41574988 0.3747843 0.3855975 -0.5437076 0.24247351 0.25692958 0.43221024 -0.11938454 -0.14737599 0.20376001 -0.09745436 0.04628977 -0.11509132 0.017061358 0.09011682 -0.117627084 -0.0006793478 -0.31568095 -0.17113633 0.2694561 0.11632085 -0.06646154 -0.18433465 -0.26172158 0.5506645 0.12631695 -0.11482556 0.23657858
22 0.0984422 -0.17585038 -0.18558262 -0.0084140105 -0.06306082 0.27365574 0.089976594 0.17193756 -0.2584547 0.33813375 0.35188922 0.07157749 0.08967354 0.06275285 -0.24955009 -0.1357547 -0.058640756 -0.12628837 0.008161114 -0.6405259 0.21030647 -0.16051114 -0.33270657 0.04862694 0.44210055 -0.18576068 -0.19532718 -0.16659704 0.29943416 0.052495167 -0.5828126 0.08109677
18 0.14014605 -0.13441369 -0.19456306 0.029382978 -0.08671113 0.19303305 0.0845801 0.10103327 -0.27597427 0.31551462 0.31421152 0.038124643 0.1144186 0.041513614 -0.25249276 -0.08892332 -0.06597955 -0.10751044 0.040556684 -0.59705836 0.23885928 -0.14962918 -0.3278629 0.05718014 0.45940134 -0.15812843 -0.20776041 -0.1677971 0.3429998 0.034953084 -0.6068264 0.09573371
21 0.07108635 0.15005475 -0.14740753 -0.016729578 -0.45274654 0.37290612 0.46358368 -0.6095517 0.25346115 0.23366106 0.4476303 -0.1445383 -0.18426418 0.19509628 -0.099523365 0.09046183 -0.16532832 0.053277913 0.061939877 -0.11333621 -0.014258954 -0.2956828 -0.1602742 0.29084006 0.08138549 -0.07538822 -0.17599943 -0.30337447 0.59029436 0.1378508 -0.030605998 0.25072986
12 0.025354017 -0.28459606 -0.097885124 -0.14323168 0.084726125 0.38619527 0.06816839 0.12259526 -0.2562619 0.36528742 0.25063288 0.070485234 0.2231451 0.10499399 -0.18116006 -0.15130417 -0.01907042 -0.16897729 -0.2141302 -0.62860745 0.09135224 -0.19425426 -0.31766903 0.046994835 0.26986903 -0.22904702 -0.25587744 -0.14805639 0.36831445 0.16746965 -0.5100773 -0.04332702
