77 16
Valjean -0.12027314 0.14811479 0.34544858 -0.10414164 -0.8731607 0.009361066 0.5784801 -0.14271487 -0.06270939 -0.107098244 0.5845918 -0.36280856 0.44036525 0.5776319 -0.445077 0.38984075
Myriel -0.14274088 0.19531704 0.29825065 -0.044841733 -0.8271339 0.009913798 0.54734415 -0.13972133 0.037649047 -0.12551893 0.6310315 -0.36850196 0.36831293 0.55997634 -0.48512062 0.341753
Marius -0.10907952 0.11718045 0.23345979 -0.08973762 -0.6142023 -0.006413357 0.42508352 -0.15306197 -0.025329221 -0.07652905 0.3836616 -0.2017966 0.26178023 0.3552524 -0.34489664 0.28027558
Thenardier -0.124182254 0.11146629 0.30580238 -0.059103355 -0.7151804 0.008319809 0.4923429 -0.17546467 -0.015866857 -0.07664279 0.44468093 -0.26754883 0.34908745 0.43577603 -0.36982968 0.26797432
Gavroche -0.08819313 0.13081406 0.26312223 -0.052542586 -0.6957564 -0.017444538 0.47145528 -0.14511487 -0.026411429 -0.041924205 0.48621976 -0.2290133 0.31659016 0.43248618 -0.3206393 0.34746438
Cosette -0.09734826 0.12990499 0.24511915 -0.0403593 -0.53961146 0.022460233 0.33882374 -0.11380766 -0.038728602 -0.08009628 0.36903408 -0.19719195 0.27011555 0.36971065 -0.28209218 0.22331057
Fantine -0.09250606 0.14253964 0.24283142 -0.04668347 -0.61259425 -0.003353542 0.43002316 -0.13090512 -0.012815048 -0.09990053 0.4394203 -0.25177437 0.32807592 0.4463028 -0.3744193 0.28375047
Enjolras -0.10821265 0.11824804 0.227609 -0.024362167 -0.5457314 0.04478536 0.4041106 -0.13789043 0.012323117 -0.0056703268 0.38531944 -0.21847205 0.24976572 0.35852182 -0.27222824 0.22831154
Javert -0.11890724 0.07991058 0.22833447 -0.07767098 -0.5351133 0.012784452 0.3263227 -0.07432724 -0.05255105 -0.060790095 0.31516805 -0.23063941 0.2670822 0.35332778 -0.23152019 0.20611723
Courfeyrac -0.112124585 0.13655172 0.25168136 -0.03148318 -0.6047494 0.029482009 0.418664 -0.13836116 -0.016405491 -0.012070594 0.37403032 -0.2111647 0.3012059 0.36929744 -0.28450862 0.24706364
MmeMagloire -0.07858153 0.10948948 0.2041076 -0.028832387 -0.50576 -0.012206057 0.33786055 -0.083763726 -0.003202352 -0.078397326 0.3836423 -0.20749529 0.2039069 0.32203215 -0.303166 0.21298352
Gillenormand -0.07365573 0.10863017 0.25249133 -0.038992323 -0.5959336 0.015090008 0.3828599 -0.15196872 -0.03964052 -0.05348826 0.3911943 -0.2512701 0.27150938 0.38004276 -0.33550018 0.26178226
MlleGillenormand -0.0663418 0.1390556 0.28645274 -0.09104969 -0.62614757 -0.012634602 0.44301656 -0.13897821 -0.030308433 -0.07701273 0.39378822 -0.23476943 0.30121708 0.42854208 -0.35996413 0.29695544
Bossuet -0.12092314 0.15150692 0.28349957 -0.066254504 -0.6032375 0.03161531 0.41402304 -0.15173426 0.012850781 -0.03320652 0.38764858 -0.21448517 0.27943626 0.4081767 -0.3180921 0.29854792
MlleBaptistine -0.052656792 0.112630196 0.22265509 -0.040086094 -0.5031384 0.015790235 0.35572404 -0.06945044 0.027875168 -0.08674418 0.40518412 -0.23204362 0.24614 0.34099886 -0.2796166 0.23949517
MmeThenardier -0.05042302 0.06381034 0.22966644 -0.066910364 -0.45318925 -0.013377557 0.32889843 -0.13341619 -0.028516598 -0.07095062 0.33221132 -0.19008358 0.2067016 0.29177952 -0.2543349 0.21383338
Combeferre -0.11924661 0.124878265 0.18689135 -0.01550218 -0.4953806 0.005158933 0.33708814 -0.1274882 0.0018343409 -0.010117513 0.32841745 -0.20433742 0.26287434 0.28031996 -0.23733407 0.24716048
Fauchelevent -0.060624458 0.14336868 0.26700816 -0.0064725885 -0.58908814 0.008426984 0.41625884 -0.07249962 0.011908973 -0.012311897 0.34328794 -0.19359696 0.23429967 0.37317502 -0.29728186 0.24952964
Babet -0.11965158 0.07061302 0.22329146 -0.039921544 -0.5619403 -0.0030337765 0.3559626 -0.11841318 -0.019308418 -0.019518819 0.3942728 -0.190492 0.29567584 0.34219116 -0.31511533 0.26142466
Joly -0.10903182 0.10646656 0.24071643 -0.049522262 -0.6386243 -0.0036978452 0.41923594 -0.1308283 0.017687922 -0.025115361 0.42094135 -0.21897636 0.27817863 0.39640433 -0.33824942 0.2650397
Bahorel -0.09077304 0.1408608 0.22001874 -0.03133322 -0.48646414 0.031751502 0.35769722 -0.13319474 0.0010184317 -0.051337887 0.3304484 -0.16957283 0.23494278 0.3112212 -0.28262302 0.21534559
Listolier -0.12531689 0.077960365 0.202787 -0.03344476 -0.5196399 0.022911383 0.3661034 -0.14204304 -0.03656721 -0.06238438 0.34745228 -0.23786576 0.2294875 0.37529495 -0.2770179 0.2322303
Gueulemer -0.12168185 0.10394781 0.24626443 -0.067929685 -0.49365503 0.036353193 0.36859596 -0.123224065 -0.0039549614 -0.03274715 0.3896489 -0.18777712 0.25135466 0.3280312 -0.24916753 0.24749541
Blacheville -0.11625386 0.13598257 0.2589809 -0.048170492 -0.5752913 0.009759802 0.36898506 -0.15214293 -0.028576555 -0.06520626 0.38248527 -0.20597939 0.29692602 0.40115455 -0.329504 0.26774696
Mabeuf -0.12950194 0.1339047 0.2303237 -0.07571232 -0.60166734 0.0077319406 0.4328703 -0.14921506 -0.01977771 -0.02894425 0.3871447 -0.19272283 0.32396686 0.3881712 -0.2805269 0.31265777
Dahlia -0.13514218 0.11946521 0.25098276 -0.0054855673 -0.5621346 -0.0066407733 0.37972432 -0.12767151 -0.032152172 -0.052945253 0.33818448 -0.235838 0.2861465 0.36941472 -0.30182 0.22053117
Favourite -0.10485719 0.07493549 0.21505256 -0.01563362 -0.4825445 -0.0047586523 0.32897547 -0.08832463 -0.016672831 -0.039474413 0.31040913 -0.23593481 0.25855565 0.33427554 -0.24139924 0.18619397
Tholomyes -0.119609095 0.13742563 0.2054284 -0.018949294 -0.5704362 -0.016981727 0.40166485 -0.12752476 -0.04351691 -0.023310196 0.34266484 -0.22046876 0.24756807 0.4143939 -0.2958628 0.21673495
Zephine -0.10988155 0.09346163 0.17877743 -0.037455942 -0.47100523 0.020398773 0.2887382 -0.08984635 -0.05246523 -0.020749869 0.3261844 -0.17255948 0.24148463 0.33928168 -0.24196395 0.22585218
Eponine -0.076863736 0.105046615 0.23393473 -0.033557694 -0.5875453 0.027295342 0.42532963 -0.12337271 -0.030656407 -0.08330548 0.36880186 -0.25328085 0.27503985 0.35348013 -0.31165543 0.22991411
Judge -0.061680358 0.070149556 0.22659464 -0.074552305 -0.49979192 0.01951823 0.29982635 -0.108922526 -0.0016829093 -0.020325398 0.3316388 -0.18836524 0.2173435 0.27330142 -0.2680374 0.21787553
Champmathieu -0.11395369 0.044692613 0.1696231 -0.07468155 -0.43729997 0.01589114 0.3269491 -0.100085124 -0.045547716 -0.08374564 0.35132563 -0.18194695 0.2524732 0.30873695 -0.2289503 0.17393687
Feuilly -0.085250184 0.14417899 0.22720163 -0.028160146 -0.52160394 0.014287859 0.36936173 -0.10494979 0.010925908 -0.021220095 0.38346815 -0.19874603 0.23942591 0.31404167 -0.262696 0.23872824
Brevet -0.07831627 0.050186712 0.20057732 -0.08012085 -0.45278183 -0.027378416 0.32639864 -0.08345099 0.012573395 -0.08336971 0.3730517 -0.19059756 0.21472608 0.3177785 -0.26733738 0.1898808
Claquesous -0.09783248 0.10963131 0.22032645 -0.03147289 -0.49523202 -0.0055445577 0.31742898 -0.08294227 0.0020784386 -0.044555288 0.32768643 -0.21439278 0.19730727 0.30765146 -0.24079406 0.21659292
Fameuil -0.13905124 0.11497637 0.23630467 -0.040272046 -0.532991 0.018013261 0.36769608 -0.112962775 -0.056387126 -0.06655086 0.3591265 -0.21283945 0.25865832 0.38659078 -0.25153792 0.19242537
Chenildieu -0.055206746 0.06244061 0.22311348 -0.04774167 -0.4725964 -0.0036811656 0.3434755 -0.11322055 -0.0306524 -0.05819389 0.35433668 -0.18702675 0.2502617 0.28152466 -0.2627621 0.17904411
MmeBurgon -0.119577184 0.10499844 0.2145119 -0.023203697 -0.5674562 0.006503548 0.4192953 -0.11529908 -0.059978507 0.0086 0.34863085 -0.24101077 0.28600782 0.29958972 -0.30535164 0.29724345
Cochepaille -0.11794265 0.09493537 0.18778098 -0.059867237 -0.5108048 -0.010841812 0.31269723 -0.119563125 0.014531572 -0.0582802 0.3547877 -0.19317412 0.22553281 0.32166207 -0.28496277 0.20708516
Simplice -0.11519918 0.13139078 0.19530009 -0.0018939603 -0.4131175 -0.025774544 0.318188 -0.12382019 -0.047028597 -0.03042408 0.32720208 -0.19662993 0.23736288 0.33128104 -0.23703942 0.1987615
Bamatabois -0.09220447 0.08507953 0.20444842 -0.042436793 -0.4141304 -0.02971332 0.30002114 -0.073049106 -0.008579862 -0.03442859 0.340268 -0.18894279 0.19324721 0.2647156 -0.23331489 0.16970076
Brujon -0.09914385 0.070751436 0.20434017 -0.051171914 -0.5066314 0.014536685 0.30868876 -0.10925998 -0.011459926 -0.0452634 0.3716561 -0.20796414 0.20625222 0.30565327 -0.26819143 0.21182692
Child1 -0.06751466 0.060350563 0.19292876 -0.03148437 -0.49413383 0.010536501 0.32537305 -0.109808356 -0.027516097 -0.064815864 0.38882667 -0.17848106 0.27832344 0.33912173 -0.29871333 0.27809605
Child2 -0.07360514 0.113594726 0.23453256 -0.012271411 -0.5405453 0.014472819 0.31964695 -0.081393704 -0.0048317253 -0.010401912 0.3749336 -0.2142502 0.21087863 0.321936 -0.26869005 0.27730528
Grantaire -0.057448618 0.10624096 0.22925577 -0.041694354 -0.51423883 -0.0057392037 0.3241873 -0.0800862 0.022542225 -0.063482255 0.3333185 -0.20540585 0.25578287 0.27470312 -0.21755706 0.19853374
Montparnasse -0.06650663 0.08332247 0.21186236 -0.060680464 -0.45744875 -0.0168937 0.28806454 -0.11845147 -0.041626815 -0.02636497 0.34800467 -0.17401399 0.1980493 0.27856892 -0.21922618 0.18674026
Jondrette -0.091648184 0.12126789 0.20367108 -0.037083376 -0.5868761 -0.008146384 0.44123757 -0.08287489 -0.06163287 -0.01761258 0.36521223 -0.18294932 0.27812445 0.3080944 -0.30444527 0.31521362
Pontmercy -0.060513064 0.08692819 0.20905915 -0.067661315 -0.4780281 -0.034781355 0.32444406 -0.0697912 -0.015925793 -0.018447602 0.2879101 -0.19000824 0.24394692 0.30426237 -0.26112804 0.17774685
MotherInnocent -0.025975438 0.07759355 0.17892654 -0.044447396 -0.42175382 -0.023396155 0.29174697 -0.09648831 0.014489416 -0.0071611316 0.2599338 -0.17989697 0.14347504 0.21196897 -0.19110082 0.15240529
MmePontmercy -0.08668751 0.12776534 0.21856426 -0.040837843 -0.52528 -0.012778899 0.38769644 -0.13529502 -0.0021537694 -0.042563844 0.337274 -0.18497726 0.26778474 0.34039852 -0.32155532 0.20139815
Count -0.089718714 0.07238559 0.13417321 -0.04155192 -0.42667964 0.0050051855 0.23998655 -0.09177228 -0.004336085 -0.0468282 0.32868102 -0.19441779 0.15737616 0.24670616 -0.22352363 0.18499656
Prouvaire -0.08507285 0.11126346 0.12748104 -0.010004205 -0.35727194 0.030783812 0.21994953 -0.056071993 -0.0036731714 -0.04849791 0.25871497 -0.14544465 0.19075459 0.2383693 -0.15511484 0.13708474
MotherPlutarch -0.12675294 0.09779665 0.20372754 -0.013367062 -0.5248259 0.043571007 0.3225098 -0.12048588 -0.005188119 -0.0073252255 0.3487949 -0.1664184 0.27894953 0.2867445 -0.28201824 0.2637192
Perpetue -0.11923729 0.1343911 0.19309354 -0.02239477 -0.48415592 0.023657307 0.3471428 -0.075160846 -0.061901752 -0.0729198 0.32963422 -0.21133994 0.2292605 0.3829512 -0.2769736 0.208031
CountessDeLo -0.076367274 0.05337339 0.13176021 -0.01749994 -0.35045668 -0.017189162 0.2144563 -0.06571855 0.007052238 -0.027367692 0.29582435 -0.16562611 0.14243822 0.2642983 -0.21784548 0.14758083
Woman2 -0.038494695 0.07545964 0.10090715 -0.027332492 -0.21766402 -0.009837008 0.15796156 -0.03341039 -0.0057464647 -0.015759911 0.18646666 -0.08552404 0.0985522 0.18024406 -0.1430381 0.08344318
LtGillenormand -0.037597377 0.10848401 0.159767 -0.009641218 -0.32521144 -0.031843994 0.2237622 -0.10044362 0.012073972 -0.014719272 0.1990792 -0.15046582 0.19058165 0.21799469 -0.18615715 0.1183986
Gribier -0.046170507 0.12175739 0.19788547 -0.017492235 -0.495659 -0.033971783 0.34995154 -0.0807204 -0.020324804 -0.025930751 0.30938998 -0.14926498 0.20461808 0.2651612 -0.2099341 0.18626177
Anzelma -0.09298697 0.08251277 0.1816633 -0.027583 -0.41722277 0.009801748 0.31403854 -0.11025385 -0.03693317 -0.034357868 0.29762658 -0.18312986 0.18684396 0.2884931 -0.21701373 0.15761897
MmeHucheloup -0.079578385 0.12237995 0.1774013 -2.2684082e-05 -0.4630997 0.027943777 0.32025376 -0.08778374 0.026123824 -0.049801353 0.3118581 -0.20388119 0.23886499 0.2668708 -0.22308224 0.2244318
OldMan -0.04485879 0.042691756 0.14184628 -0.005075209 -0.3482673 0.026978016 0.26512292 -0.042429563 0.017815512 -0.031632002 0.25374228 -0.15957762 0.1401115 0.21360525 -0.18661223 0.18461661
Cravatte -0.0330736 0.07904624 0.104825355 -0.035541598 -0.29470867 0.008291785 0.18484262 -0.08029303 0.019962613 -0.043697894 0.23683609 -0.110720225 0.1711084 0.23872465 -0.1931164 0.115082055
Marguerite -0.07154549 0.0793718 0.10583997 -0.057615906 -0.31335872 0.004867618 0.2044632 -0.06998303 -0.018670905 -0.02952647 0.21274346 -0.124657735 0.15611838 0.21463108 -0.17736965 0.10676147
Napoleon -0.0795022 0.0655443 0.10544493 -0.037888456 -0.2942687 0.0039254096 0.2378162 -0.06314029 0.032576762 -0.036528565 0.2639225 -0.14400385 0.15374273 0.2309995 -0.19677354 0.14205836
Geborand -0.046091005 0.04013943 0.15953673 -0.046499334 -0.3513784 -0.0054699928 0.1923021 -0.033581857 0.032075126 -0.007999529 0.270634 -0.1356939 0.14184032 0.19422162 -0.21806817 0.16947873
Magnon -0.042105734 0.0714994 0.16732806 -0.035277568 -0.3202057 0.019936955 0.2120012 -0.08019806 -0.0060611623 -0.038312487 0.22382963 -0.15754794 0.18477204 0.24885665 -0.15782623 0.17842615
Champtercier -0.04147231 0.092143014 0.12242357 -0.0064867116 -0.3033845 0.028158765 0.21932589 -0.036514383 0.018298132 -0.038204953 0.21431151 -0.14477035 0.1617073 0.24404342 -0.17641537 0.1288103
Toussaint -0.024109546 0.06804679 0.08064093 -0.01566497 -0.24053411 -0.013392073 0.17372008 -0.043913685 -0.043421607 -0.050129794 0.1368544 -0.08021822 0.09647679 0.1294115 -0.15216427 0.086619854
MlleVaubois -0.049506042 0.11148585 0.18856557 -0.06611472 -0.4260322 -0.024027431 0.3087212 -0.106921755 -0.036492754 -0.03168504 0.2905067 -0.19485058 0.16694923 0.2725992 -0.21472076 0.16145316
Woman1 -0.06821555 0.0382296 0.08370692 -0.04306497 -0.23637967 -0.0249482 0.18729602 -0.07807413 -0.04199539 -0.0031327065 0.1813264 -0.09423184 0.10598732 0.19696414 -0.15920474 0.08169573
MmeDeR -0.063400395 0.028319867 0.091212176 -0.037292525 -0.20355225 -0.009996891 0.12490064 -0.039980542 0.016169358 0.0065158065 0.14219616 -0.1173419 0.0768919 0.13046618 -0.12724298 0.0675182
Scaufflaire -0.024663046 0.024265215 0.07112227 -0.036174573 -0.23419994 -0.026189122 0.14837581 -0.033847988 -0.01813685 -0.043106277 0.11399044 -0.10065362 0.07088632 0.10887833 -0.09594092 0.07533431
Labarre -0.025472725 0.033158213 0.09636609 -0.009899005 -0.18473527 0.0040987106 0.141109 -0.0030030047 -0.009471572 -0.04731159 0.1440465 -0.03993718 0.09481427 0.09739132 -0.09019117 0.061111342
Gervais -0.039475903 0.041827742 0.09593248 -0.043005995 -0.21244879 0.009550992 0.16129869 -0.04888226 -0.034941252 -0.039586995 0.17231722 -0.11329307 0.09527621 0.15982273 -0.14577001 0.1154946
BaronessT -0.009860316 0.09416688 0.11502003 -0.021446666 -0.30480617 -0.010395567 0.19937105 -0.03925401 -0.03535761 -0.020004723 0.17488112 -0.10696606 0.16094959 0.19177939 -0.12415726 0.11488922
Boulatruelle -0.071881615 0.037028495 0.1354109 -0.043829765 -0.26881397 0.022040991 0.2012862 -0.091487736 -0.004118676 -0.008437594 0.2179626 -0.13527785 0.13101569 0.161378 -0.15347335 0.14693427
Isabeau -0.025861204 0.009248851 0.071582206 -0.041192874 -0.19490014 0.01919346 0.10207523 -0.06434216 -0.027443971 -0.004640084 0.14713234 -0.09925596 0.0847997 0.1142493 -0.08264448 0.0466773
