77 16
Valjean 0.5035636 0.17156273 0.45551506 -0.25884926 -0.7145624 -0.4095798 0.5712123 0.3684675 -0.13511108 -0.5925833 0.36349747 -0.47948363 0.07858832 0.3127686 -0.31360367 -0.051406533
Myriel 0.36722562 0.85525477 -0.072520174 0.60486096 -0.70418364 0.050139043 0.46267968 0.87478846 0.9819505 -0.97326064 1.3403662 -1.1357049 0.10292327 0.53852266 -0.66437036 0.4708966
Marius 0.41750735 0.6855025 0.40379182 -0.21514285 -0.70612174 -0.14733662 0.6180587 -0.46492395 -0.057469923 -0.063914604 -0.1273714 0.07727335 0.39710563 0.37108472 -0.34867993 0.22257511
Thenardier 0.11840805 -0.15522069 0.6305268 -0.10820009 -0.7582622 -0.17361343 0.70700586 -0.5182388 -0.37110806 -0.21711849 0.2921435 -0.3126801 0.35191852 0.22691192 -0.35394952 0.021574877
Gavroche 0.27699572 0.5838093 0.13458663 0.57881093 -1.0572134 0.13404223 0.7428625 -0.14505893 -0.06734932 0.48150364 0.33782405 0.13504247 0.64795035 -0.14098541 0.10930274 1.3657106
Cosette 0.4191632 0.39671594 0.49000007 -0.23811822 -0.66373646 -0.33982304 0.58707815 -0.08918222 -0.26646438 -0.32666457 0.08880427 -0.19094387 0.17482755 0.4503024 -0.44715193 -0.027427614
Enjolras 0.12084141 0.92466587 0.3392145 0.465843 -0.8691186 0.25775972 0.7132173 -0.32596147 0.45918027 0.21625432 0.12023684 0.043057483 0.5640894 0.051721793 0.23905657 0.5374291
Fantine -0.50649863 0.3119489 0.40995347 0.2989109 -0.5691419 -0.27974167 0.26826245 -0.1480172 -0.6913477 -0.5418474 0.1261749 -0.67510694 0.59459037 1.1321234 -0.37799716 0.064919285
Javert 0.06700209 0.11615962 0.49249646 -0.06546659 -0.708929 -0.2613889 0.5169835 0.04278158 -0.30175906 -0.34024438 0.29978785 -0.39563125 0.22249448 0.30712485 -0.17665985 0.066637374
Courfeyrac 0.073064834 0.97633713 0.3063537 0.46575692 -0.93622917 0.3116699 0.7351581 -0.39026675 0.44742203 0.2726514 0.05805253 0.082236774 0.72586393 0.03767895 0.25965118 0.6168128
MlleGillenormand 0.9098021 0.7615196 0.61040056 -0.6424174 -0.6587521 -0.40754172 0.59478855 -0.49788824 -0.26351374 -0.19083759 -0.33318788 0.017819203 0.5211601 0.8713704 -0.7701735 0.21430905
MmeMagloire 0.24937484 0.46219128 0.0018309731 0.41422814 -0.5756605 0.05375581 0.34696054 0.83459926 0.7791995 -0.7747717 1.2365267 -0.949843 0.120999716 0.4701608 -0.6434618 0.5736368
Gillenormand 0.72287023 0.68008834 0.4864883 -0.39525062 -0.6994851 -0.30496937 0.52946454 -0.62746304 -0.24893704 -0.060671788 -0.12815714 -0.06726136 0.42390266 0.64620805 -0.67875123 0.14034092
MlleBaptistine 0.2745279 0.48588333 0.025359316 0.39387628 -0.54107934 0.083941914 0.34085158 0.7726253 0.7704892 -0.74659437 1.1614918 -0.91276807 0.17567511 0.46811786 -0.56107134 0.54011834
Combeferre 0.04752313 0.971692 0.29797602 0.5451516 -0.96216476 0.29805514 0.6735287 -0.37161487 0.48827177 0.29003817 0.1389499 0.051412255 0.7358794 -0.0030203906 0.28063846 0.736371
Bossuet 0.088431835 0.9932152 0.33440292 0.5178426 -0.9172768 0.3465289 0.6595116 -0.3369725 0.56284046 0.27818725 0.1447242 0.07588997 0.6461933 0.010743708 0.2570476 0.7645816
MmeThenardier 0.20987654 -0.07431665 0.59536684 -0.16201964 -0.7007236 -0.16238238 0.5990399 -0.46263275 -0.36227632 -0.25018921 0.3224173 -0.35168633 0.26703638 0.238699 -0.30572012 0.16128898
Fauchelevent 0.85574156 0.45618165 0.8571438 0.17929074 -1.1242791 -0.67455506 1.0806773 0.56779057 0.07717499 -0.1066896 0.030563397 -0.13137363 -0.3674488 0.17918019 -0.32485703 -0.039397795
Babet 0.0014053956 -0.2945266 0.65688103 -0.04622731 -0.8326243 -0.08676907 0.57847744 -0.54770714 -0.3126553 -0.077389695 0.58397907 -0.32170665 0.38888228 0.058149736 -0.20415294 0.27190265
Listolier -0.77247596 0.38941643 0.40411854 0.6073968 -0.8436762 -0.037911337 0.15376699 -0.39448687 -0.70420444 -0.32980046 -0.0012638645 -0.7436135 0.8669881 1.3813479 -0.2649456 0.39169008
Judge 0.1709291 -0.23451619 0.9157709 -0.69229513 -0.9748709 -0.53579396 0.57349485 -0.16696991 0.35655755 -0.61224526 1.2285889 -0.5717893 0.32619077 0.022686182 -0.61184573 -0.05274624
Blacheville -0.78970474 0.44325688 0.45194942 0.6021341 -0.84941983 -0.05301062 0.081747 -0.3837554 -0.7197944 -0.36042157 0.019954406 -0.69622153 0.92902327 1.4152542 -0.30525637 0.4007664
Dahlia -0.77276975 0.44162694 0.4635512 0.60447085 -0.8550256 -0.07611938 0.14164567 -0.38400218 -0.68626183 -0.32089585 -0.018490143 -0.71304405 0.9113847 1.3474698 -0.28026512 0.33036268
Gueulemer -0.025966544 -0.26370928 0.68794227 -0.06556017 -0.78806084 -0.019904567 0.60853446 -0.5678303 -0.32627946 -0.06658843 0.5934266 -0.3239459 0.35612267 0.06062191 -0.13421577 0.29702687
Favourite -0.7968446 0.37422708 0.4379204 0.6168033 -0.83547527 -0.08455565 0.114176266 -0.36148876 -0.7218071 -0.32158375 -0.02874464 -0.7682322 0.9258844 1.4008596 -0.2517527 0.32568866
Bahorel 0.050429452 0.9829934 0.32144317 0.56387895 -0.9348833 0.34655544 0.6956383 -0.34709448 0.5508599 0.24303116 0.1625474 0.07026584 0.6968076 -0.018078478 0.26432636 0.7254361
Joly 0.043230835 0.9151036 0.27496868 0.533166 -0.9556847 0.30244738 0.6667206 -0.34228837 0.53962165 0.2718287 0.16614528 0.057259165 0.67703944 0.0067895567 0.27968046 0.6866485
Zephine -0.7338104 0.4051195 0.42022637 0.54032415 -0.8378302 -0.077592485 0.110022485 -0.33600858 -0.7312166 -0.31782454 0.044840448 -0.6812039 0.8817309 1.3682643 -0.2808765 0.3730334
Champmathieu 0.10550421 -0.29933593 0.87612355 -0.7109198 -0.9371521 -0.5489793 0.5978795 -0.19105083 0.32047555 -0.68748045 1.317446 -0.5592285 0.38741812 0.04962398 -0.5775551 -0.07191652
Eponine 0.16421315 0.017761642 0.5179452 0.031992212 -0.77304995 0.05471989 0.63754743 -0.5347054 -0.17194971 -0.07420756 0.24809939 -0.21923159 0.43410417 0.068603374 -0.12295617 0.27711415
Tholomyes -0.6931808 0.4599341 0.385988 0.57344145 -0.81217086 -0.09817556 0.17858452 -0.37103048 -0.7172455 -0.2741225 -0.071595125 -0.6623521 0.82743955 1.358449 -0.26878852 0.30318984
Mabeuf -0.0496353 0.8936284 0.25941172 0.27640304 -0.9983349 0.21400653 0.8592809 -0.39552823 0.39219388 0.21059592 0.13999657 0.1622093 0.9379142 0.13038361 0.3627089 0.9120284
Cochepaille 0.10739547 -0.26607034 0.858638 -0.6799169 -0.9349365 -0.58513343 0.55929947 -0.16762066 0.37727222 -0.6639192 1.2657348 -0.54822695 0.29092392 0.032925956 -0.6169698 -0.09524862
Fameuil -0.71806127 0.38646474 0.4383551 0.52587795 -0.814185 -0.060753968 0.14197479 -0.3470017 -0.69213355 -0.332117 0.02987531 -0.66977817 0.8402822 1.3122485 -0.24708977 0.3023015
Claquesous 0.018504 -0.2188714 0.66199553 -0.05615287 -0.79981464 -0.092445865 0.58877707 -0.5060839 -0.2737747 -0.11687468 0.50576514 -0.36748922 0.26423258 0.07932715 -0.16115822 0.19558267
Chenildieu 0.17963797 -0.2999709 0.9607842 -0.69877553 -0.9539639 -0.6046829 0.6221013 -0.2069043 0.37264505 -0.6751898 1.3484051 -0.5731168 0.37298188 -0.024731345 -0.6110823 -0.10964909
MmeBurgon 0.14603058 0.4660043 -0.023987038 0.5736002 -1.1370304 -0.08864123 1.1802844 0.13560328 -0.6058778 0.6191091 0.2234609 -0.20569515 0.7091448 -0.3703876 -0.16318884 1.5586567
Bamatabois 0.03212109 -0.19153225 0.79930794 -0.52869606 -0.7768279 -0.54424894 0.4978797 -0.13713822 0.16358942 -0.56390846 1.0426635 -0.53119594 0.31285942 0.1320265 -0.4949408 -0.09745714
Feuilly 0.036492985 0.96665776 0.30061513 0.5372123 -0.8865723 0.3235094 0.6557716 -0.2995791 0.5426381 0.23856756 0.16856731 0.03512539 0.6541521 -0.01305705 0.3076461 0.65087
Brevet 0.114674546 -0.26504245 0.8856396 -0.6773117 -0.89231485 -0.58469254 0.57509845 -0.17463793 0.3423861 -0.67883223 1.2630751 -0.56303024 0.34182286 0.10041449 -0.59653056 -0.068460904
Simplice -0.17600532 0.45216838 0.4263404 0.2390543 -0.3435773 -0.43988392 0.48814297 -0.113404065 -0.5772455 -0.3615669 0.29652226 -0.53598595 0.42323068 0.74567825 -0.3096575 0.07961886
Child1 0.5706669 0.115002386 0.25527543 0.676021 -1.085601 0.07397342 0.076851144 -0.033534292 -0.17498189 0.2721109 0.90599287 0.069894396 0.5777461 0.19401035 -0.2824332 1.8907819
Montparnasse 0.03998055 -0.20176466 0.6250736 -0.043709204 -0.81514704 -0.08076722 0.54625297 -0.5190915 -0.3221061 -0.035686873 0.5492802 -0.28055546 0.32247812 0.021283405 -0.12251347 0.29935506
Child2 0.5348904 0.27609006 0.371798 0.72052264 -1.2094498 0.1409014 0.054789625 0.04868718 -0.12265563 0.42442492 0.82150996 -0.038126834 0.37974072 0.12547776 -0.21111082 1.8422776
Brujon -0.0059835366 -0.23886351 0.59774673 -0.024842503 -0.82262194 -0.032901067 0.51541305 -0.53105146 -0.2982851 -0.057484355 0.55887055 -0.3239545 0.32867956 0.064349174 -0.16208057 0.31626886
Prouvaire 0.013651196 0.98365474 0.28622925 0.5294113 -0.89535743 0.32847175 0.64587814 -0.30346084 0.5413361 0.21943086 0.14110462 0.03230854 0.66980016 0.011973772 0.3246351 0.5853183
Grantaire 0.06710194 0.91896164 0.31334388 0.5405689 -0.90741897 0.2909672 0.6320759 -0.26573125 0.5634657 0.20512134 0.16298391 0.0005889019 0.6591012 -0.042450916 0.3285447 0.63391006
Pontmercy 0.4783181 0.39338052 0.6473566 -0.4370683 -0.8270941 -0.40555084 0.6275811 -0.46251154 -0.26930925 0.09491123 -0.16318686 -0.16351306 0.62182707 0.5969421 -0.5854326 0.07479144
Count 0.17458467 0.35987678 -0.0117746275 0.3092458 -0.48927134 0.06083601 0.25420815 0.63661367 0.62833345 -0.58311856 0.99010116 -0.77363575 0.10782353 0.36343795 -0.48335975 0.4849696
MmePontmercy 0.48805815 0.692053 0.53331727 -0.30214864 -0.78123724 -0.44355556 0.71506095 -0.7122648 -0.19426696 0.023404494 -0.17104559 0.013196855 0.6329474 0.6883249 -0.8075088 -0.08003611
Anzelma 0.056976426 -0.02965155 0.5483575 -0.05983524 -0.69141483 -0.054614373 0.60688627 -0.49660343 -0.22416869 -0.10950837 0.38315743 -0.2831282 0.29543748 0.19206929 -0.18661322 0.18354604
Jondrette 0.2112547 0.47793368 -0.06962994 0.5013676 -1.1090657 -0.16552773 1.2388377 0.26906815 -0.67044437 0.44360328 0.25972646 -0.037596 0.66338825 -0.28717577 -0.14611636 1.48939
MotherInnocent 0.7643055 0.4289509 0.6806468 0.1029899 -1.1166595 -0.669771 0.95323515 0.28155693 0.05159497 -0.076088265 0.099165075 -0.2266752 -0.1807638 0.014633496 -0.101356044 -0.0191594
LtGillenormand 0.51047206 0.5914994 0.45306712 -0.25007907 -0.6072977 -0.34087995 0.47928447 -0.40107927 -0.20009091 -0.08624354 -0.08329424 -0.12135695 0.39146778 0.55046344 -0.4902547 0.07904638
MmeHucheloup 0.05117345 0.8880455 0.27140182 0.55446035 -0.87522906 0.30433086 0.64180803 -0.26858416 0.5061885 0.21420619 0.18144211 -0.015948787 0.62572324 -0.030855173 0.28154087 0.6801953
Perpetue -0.19815814 0.5723796 0.30518356 0.2043563 -0.47123998 -0.17961873 0.41379645 0.16273068 -0.7445078 -0.56794226 0.15136726 -0.55163056 0.4192533 0.9222124 -0.3096797 0.16871117
CountessDeLo 0.1841698 0.34762952 0.021036347 0.3546529 -0.5031593 0.047940288 0.26713675 0.66898984 0.6666823 -0.58267844 1.0628254 -0.8021691 0.15272178 0.42024934 -0.51023334 0.53487206
Champtercier 0.20606135 0.3846413 0.01568761 0.35015482 -0.4588682 0.088757776 0.27359077 0.69631374 0.67336345 -0.60539657 0.9924263 -0.79505885 0.16268083 0.42929035 -0.4946361 0.490053
Woman2 0.20725629 0.23133951 0.43294507 -0.09656825 -0.6033214 -0.32117447 0.52563226 0.019658307 -0.14924526 -0.2951118 0.3269913 -0.29059532 0.11334365 0.31655282 -0.34214097 0.017697947
Gribier 0.87323946 0.5327644 0.70410967 0.20729315 -1.2343044 -0.76418763 1.0540773 0.39993504 0.060900014 -0.06424233 0.10374505 -0.14658333 -0.20519488 -0.04132595 -0.041302815 0.0038764176
MotherPlutarch -0.16172521 0.65755844 0.35537112 0.47438294 -1.0423716 0.3803358 0.5114247 -0.38867515 0.37480804 0.3213079 0.23052289 0.13150616 0.87075716 -0.06489275 0.05986068 0.74791676
Woman1 0.18692355 0.22866511 0.36342084 -0.065024145 -0.58745646 -0.31201404 0.5407169 0.01006123 -0.118375674 -0.27447954 0.32359216 -0.3026128 0.1169632 0.29926872 -0.34902507 0.036651395
Cravatte 0.22797306 0.38189504 -0.00016999489 0.33347055 -0.4802581 0.07721498 0.25088155 0.6462368 0.66628325 -0.59920055 1.0275303 -0.7595975 0.19291781 0.43390504 -0.522884 0.52569735
Napoleon 0.17007849 0.35748044 -0.009241419 0.3215378 -0.4538892 0.07066067 0.29202333 0.7002009 0.72919977 -0.6243866 1.0777189 -0.815725 0.1543995 0.42211753 -0.52629066 0.51099
Magnon 0.37967572 0.33630896 0.48543862 -0.22158527 -0.5347341 -0.1860781 0.47690424 -0.36534658 -0.17416163 -0.16814233 0.07711211 -0.19206122 0.3681208 0.45796615 -0.3262094 0.18017554
OldMan 0.20078866 0.35571837 0.038649045 0.36211863 -0.4963736 0.0870459 0.3095801 0.6554353 0.638032 -0.5782766 0.95561695 -0.7778163 0.14270587 0.3892773 -0.46847913 0.51909435
Toussaint 0.27985153 0.31592548 0.39656648 -0.09767079 -0.6290653 -0.30327165 0.56255823 -0.047935124 -0.20763904 -0.2794983 0.17244826 -0.22541973 0.15169019 0.2799771 -0.34478056 0.04752637
Geborand 0.21537614 0.32589364 0.08607626 0.26616052 -0.51837486 0.030713003 0.2688022 0.63521045 0.6360655 -0.53951114 0.9757768 -0.71811885 0.14712548 0.3468879 -0.5089529 0.5003644
Marguerite -0.19214447 0.30460882 0.3585032 0.08643837 -0.56716526 -0.25632122 0.31611484 -0.056240227 -0.4012424 -0.32544187 0.15007956 -0.42367244 0.37343302 0.68056107 -0.28253624 0.04302859
BaronessT 0.52973133 0.66177076 0.37941924 -0.19975981 -0.611555 -0.22053345 0.5108612 -0.33715552 -0.1446488 -0.0379611 -0.11593899 -0.0043478007 0.41712123 0.4729252 -0.31557178 0.15907612
MlleVaubois 0.5433107 0.68439645 0.43526375 -0.31523675 -0.6275963 -0.34937534 0.48133317 -0.5101794 -0.24573018 -0.032205023 -0.07865843 -0.11330859 0.3863569 0.6445105 -0.557067 0.06216782
Isabeau 0.20893253 0.16386163 0.39394757 -0.11771469 -0.5949746 -0.2798225 0.46823132 -0.0010230825 -0.09517833 -0.28445697 0.35733324 -0.34070367 0.11149816 0.26315188 -0.32764965 0.010841698
Boulatruelle 0.04611137 -0.025974145 0.50500554 -0.0779837 -0.64019156 -0.11944411 0.4951731 -0.35597947 -0.23424499 -0.1341122 0.35420796 -0.3730629 0.28567445 0.22517689 -0.2698682 0.20221537
Scaufflaire 0.24506967 0.2009995 0.39682567 -0.10070507 -0.65035135 -0.34067369 0.5319921 0.045995995 -0.08425451 -0.31215343 0.28019297 -0.3055121 0.071712434 0.2255839 -0.31409776 0.021138866
Labarre 0.24865514 0.24494076 0.41446725 -0.073194064 -0.6041807 -0.2810718 0.5373161 0.03392642 -0.09484512 -0.28864944 0.29204187 -0.21906623 0.12168725 0.23356508 -0.32015964 0.03969428
Gervais 0.23409876 0.21598871 0.37127218 -0.08672994 -0.55565673 -0.27066368 0.4947226 0.053323355 -0.09736884 -0.29750353 0.31644425 -0.3101267 0.06933942 0.26108572 -0.34892192 0.07322444
MmeDeR 0.19901134 0.20114495 0.38608745 -0.1077617 -0.57764554 -0.29506096 0.49223584 0.061795577 -0.03782028 -0.2978687 0.35664597 -0.34765634 0.078203864 0.26309562 -0.37747717 0.038604572
